Experiment	bias spectroscopy	
Date	17.10.2020 22:38:54	
User		
X (m)	11.009E-9	
Y (m)	-208.172E-9	
Z (m)	-9.98825E-9	
Z offset (m)	0E+0	
Settling time (s)	20E-3	
Integration time (s)	100E-3	
Z-Ctrl hold	TRUE	
Final Z (m)	N/A	
Filter type	None	
Order		
Cutoff frq		
Current>Current (A)	5.0046E-12	
Current>Calibration (A/V)	999.99900E-12	
Current>Offset (A)	-185.371E-15	
Current>Gain	n/a	
NanonisMain>Session Path	F:\data\020-Tip-Pi	
NanonisMain>SW Version	Generic 4	
NanonisMain>UI Release	8181	
NanonisMain>RT Release	7685	
NanonisMain>RT Frequency (Hz)	10E+3	
NanonisMain>Signals Oversampling	10	
NanonisMain>Animations Period (s)	20E-3	
NanonisMain>Indicators Period (s)	300E-3	
NanonisMain>Measurements Period (s)	523.139E-3	
Oscillation Control>differential input	TRUE	
Oscillation Control>input 1/10	FALSE	
Oscillation Control>Input Calibration (m/V)	23E-9	
Oscillation Control>Input Range (m)	824.389E-12	
Oscillation Control>Center Frequency (Hz)	30.9004E+3	
Oscillation Control>Range (Hz)	76.2939E+0	
Oscillation Control>Reference Phase (deg)	-76.42E+0	
Oscillation Control>Cut off frq (Hz)	389	
Oscillation Control>Harmonic	1	
Oscillation Control>Phase P gain (Hz/rad)	1.0472E+0	
Oscillation Control>Phase I gain (Hz/rad/s)	2.28051E+0	
Oscillation Control>Phase controller on	TRUE	
Oscillation Control>FrequencyShift (Hz)	-636.611E-3	
Oscillation Control>Amplitude Setpoint (m)	60E-12	
Oscillation Control>Amplitude P gain (V/nm)	28.524E+9	
Oscillation Control>Amplitude I gain (V/nm/s)	62.1175E+9	
Oscillation Control>Amplitude controller on	TRUE	
Oscillation Control>Excitation (V)	11.1302E-3	
Oscillation Control>output divider	1	
Oscillation Control>output off	FALSE	
Oscillation Control>output add	FALSE	
Oscillation Control>PLL-Setup Q-Factor	44.577E+3	
Oscillation Control>PLL-Setup Demod. Bandwidth Amp (Hz)	40E+0	
Oscillation Control>PLL-Setup Demod. Bandwidth Pha (Hz)	60E+0	
Oscillation Control>PLL-Setup amplitude/excitation (m/V)	4.046E-9	
Piezo Calibration>Active Calib.	4K	
Piezo Calibration>Calib. X (m/V)	3.8887E-9	
Piezo Calibration>Calib. Y (m/V)	3.6202E-9	
Piezo Calibration>Calib. Z (m/V)	-871E-12	
Piezo Calibration>HV Gain X	10	
Piezo Calibration>HV Gain Y	10	
Piezo Calibration>HV Gain Z	4	
Piezo Calibration>Tilt X (deg)	-1.7	
Piezo Calibration>Tilt Y (deg)	-2.19	
Piezo Calibration>Curvature radius X (m)	Inf	
Piezo Calibration>Curvature radius Y (m)	Inf	
Piezo Calibration>2nd order corr X (V/m^2)	0E+0	
Piezo Calibration>2nd order corr Y (V/m^2)	0E+0	
Piezo Calibration>Drift X (m/s)	0E+0	
Piezo Calibration>Drift Y (m/s)	0E+0	
Piezo Calibration>Drift Z (m/s)	-90E-15	
Piezo Calibration>Drift correction status (on/off)	TRUE	
Scan>Scanfield	10.3342E-9;-204.715E-9;20E-9;20E-9;0E+0	
Scan>series name	tip_pi_%N	
Scan>channels	Current (A);Applied Voltage measured (V);Bias (V);Z (m);Phase (deg);Amplitude (m);Frequency Shift (Hz);Excitation (V);LIX 1 omega (A);LIY 1 omega (A)	
Scan>pixels/line	256	
Scan>lines	256	
Scan>speed forw. (m/s)	15.9439E-9	
Scan>speed backw. (m/s)	31.8878E-9	
Z-Controller>Z (m)	-9.97449E-9	
Z-Controller>Controller name	log Current (amplitude safetip)	
Z-Controller>Controller status	ON	
Z-Controller>Setpoint	5E-12	
Z-Controller>Setpoint unit	A	
Z-Controller>P gain	70E-12	
Z-Controller>I gain	23.3333E-9	
Z-Controller>Time const (s)	3E-3	
Z-Controller>TipLift (m)	0E+0	
Z-Controller>Switch off delay (s)	50E-3	

[DATA]
Bias calc (V)	Current (A)	Bias (V)	Phase (deg)	Amplitude (m)	Frequency Shift (Hz)	Excitation (V)
-4.00000E-3	80.3236E-15	-4.00000E-3	-54.8836E-3	59.9757E-12	-763.706E-3	10.5857E-3
-4.00787E-3	87.4497E-15	-4.00787E-3	31.3927E-3	60.2050E-12	-675.095E-3	4.09590E-3
-4.01575E-3	86.3510E-15	-4.01575E-3	67.2455E-3	59.8849E-12	-635.854E-3	12.7520E-3
-4.02362E-3	67.5211E-15	-4.02362E-3	154.182E-3	60.0593E-12	-529.102E-3	7.64325E-3
-4.03150E-3	81.6970E-15	-4.03150E-3	88.8887E-3	59.9380E-12	-594.404E-3	10.8843E-3
-4.03937E-3	72.4499E-15	-4.03937E-3	-83.7395E-3	59.9336E-12	-776.652E-3	10.6686E-3
-4.04724E-3	66.8192E-15	-4.04724E-3	-138.795E-3	60.0102E-12	-844.693E-3	8.62223E-3
-4.05512E-3	109.270E-15	-4.05512E-3	133.445E-3	59.9892E-12	-555.621E-3	9.53468E-3
-4.06299E-3	79.3928E-15	-4.06299E-3	-44.9116E-3	59.9395E-12	-738.338E-3	11.2977E-3
-4.07087E-3	75.4865E-15	-4.07087E-3	62.7582E-3	60.1677E-12	-619.382E-3	5.10395E-3
-4.07874E-3	76.6767E-15	-4.07874E-3	5.10896E-3	60.0055E-12	-679.215E-3	9.36371E-3
-4.08661E-3	61.3411E-15	-4.08661E-3	-79.6520E-3	60.1247E-12	-766.765E-3	5.53740E-3
-4.09449E-3	86.5647E-15	-4.09449E-3	-6.92313E-3	59.9522E-12	-688.186E-3	10.2505E-3
-4.10236E-3	74.6930E-15	-4.10236E-3	17.5236E-3	59.9524E-12	-677.786E-3	11.0624E-3
-4.11024E-3	67.5059E-15	-4.11024E-3	40.9501E-3	59.9439E-12	-661.582E-3	11.2108E-3
-4.11811E-3	60.8223E-15	-4.11811E-3	-91.7356E-3	59.9473E-12	-796.452E-3	11.5337E-3
-4.12598E-3	72.2057E-15	-4.12598E-3	-20.3738E-3	59.9358E-12	-717.578E-3	12.5017E-3
-4.13386E-3	65.1407E-15	-4.13386E-3	21.9356E-3	59.9751E-12	-670.220E-3	11.8135E-3
-4.14173E-3	49.2711E-15	-4.14173E-3	-37.9154E-3	59.8343E-12	-739.552E-3	16.1220E-3
-4.14961E-3	48.8896E-15	-4.14961E-3	-5.06103E-3	60.1606E-12	-701.664E-3	6.90614E-3
-4.15748E-3	69.1539E-15	-4.15748E-3	-62.6680E-3	60.0374E-12	-766.765E-3	10.1721E-3
-4.16535E-3	70.2525E-15	-4.16535E-3	-67.4843E-3	59.9149E-12	-786.053E-3	13.1053E-3
-4.17323E-3	76.0663E-15	-4.17323E-3	-31.6197E-3	59.8526E-12	-754.968E-3	14.5539E-3
-4.18110E-3	72.8161E-15	-4.18110E-3	-43.2614E-3	60.0448E-12	-768.763E-3	9.16270E-3
-4.18898E-3	45.8377E-15	-4.18898E-3	-97.3144E-3	59.9925E-12	-816.566E-3	10.0102E-3
-4.19685E-3	35.7056E-15	-4.19685E-3	102.519E-3	60.0046E-12	-614.147E-3	9.26179E-3
-4.20472E-3	48.9048E-15	-4.20472E-3	86.3676E-3	60.0182E-12	-629.945E-3	8.94879E-3
-4.21260E-3	52.2466E-15	-4.21260E-3	10.0372E-3	59.7596E-12	-699.136E-3	17.3350E-3
-4.22047E-3	43.6251E-15	-4.22047E-3	39.5686E-3	60.1197E-12	-656.985E-3	7.12778E-3
-4.22835E-3	45.7309E-15	-4.22835E-3	-63.3090E-3	60.0383E-12	-763.192E-3	9.51595E-3
-4.23622E-3	44.9985E-15	-4.23622E-3	-130.978E-3	59.9435E-12	-820.866E-3	12.5709E-3
-4.24409E-3	66.0257E-15	-4.24409E-3	-13.6693E-3	59.8532E-12	-700.468E-3	15.3429E-3
-4.25197E-3	58.0299E-15	-4.25197E-3	14.0923E-3	59.9761E-12	-668.915E-3	11.7309E-3
-4.25984E-3	47.3179E-15	-4.25984E-3	103.946E-3	60.0116E-12	-560.673E-3	10.8512E-3
-4.26772E-3	56.3513E-15	-4.26772E-3	-45.2663E-3	59.8950E-12	-718.856E-3	14.2408E-3
-4.27559E-3	68.7571E-15	-4.27559E-3	1.96551E-3	60.1487E-12	-681.376E-3	7.41595E-3
-4.28346E-3	46.7533E-15	-4.28346E-3	-45.0875E-3	59.9995E-12	-731.986E-3	11.1977E-3
-4.29134E-3	40.7716E-15	-4.29134E-3	25.3834E-3	59.9991E-12	-666.688E-3	11.1173E-3
-4.29921E-3	47.5315E-15	-4.29921E-3	-55.0478E-3	59.9195E-12	-766.795E-3	12.5869E-3
-4.30709E-3	35.7666E-15	-4.30709E-3	-27.9354E-3	60.0658E-12	-739.368E-3	8.33307E-3
-4.31496E-3	50.9801E-15	-4.31496E-3	-3.69901E-3	60.1402E-12	-713.646E-3	5.78038E-3
-4.32283E-3	34.7290E-15	-4.32283E-3	-5.36947E-3	59.8890E-12	-703.791E-3	13.3417E-3
-4.33071E-3	29.8155E-15	-4.33071E-3	13.3939E-3	59.7786E-12	-687.538E-3	17.0638E-3
-4.33858E-3	31.9060E-15	-4.33858E-3	-40.9487E-3	60.0926E-12	-742.241E-3	6.77863E-3
-4.34646E-3	25.0394E-15	-4.34646E-3	107.733E-3	59.9688E-12	-587.828E-3	10.2363E-3
-4.35433E-3	31.7839E-15	-4.35433E-3	617.074E-6	59.9368E-12	-699.497E-3	11.1428E-3
-4.36220E-3	58.9912E-15	-4.36220E-3	-70.0919E-3	60.0379E-12	-783.416E-3	8.25113E-3
-4.37008E-3	31.5398E-15	-4.37008E-3	-35.3450E-3	59.9459E-12	-748.558E-3	11.0954E-3
-4.37795E-3	12.5115E-15	-4.37795E-3	-69.6378E-3	60.0789E-12	-785.126E-3	7.87384E-3
-4.38583E-3	35.4309E-15	-4.38583E-3	-41.7116E-3	59.9392E-12	-761.616E-3	12.3437E-3
-4.39370E-3	37.4451E-15	-4.39370E-3	964.485E-6	59.9970E-12	-724.436E-3	10.8912E-3
-4.40157E-3	49.3321E-15	-4.40157E-3	21.2873E-3	60.0355E-12	-702.897E-3	10.0466E-3
-4.40945E-3	21.5297E-15	-4.40945E-3	27.8192E-3	59.8226E-12	-694.405E-3	16.3161E-3
-4.41732E-3	11.7180E-15	-4.41732E-3	72.3478E-3	60.0105E-12	-641.670E-3	10.9751E-3
-4.42520E-3	27.1299E-15	-4.42520E-3	-20.4538E-3	59.9907E-12	-730.278E-3	11.5937E-3
-4.43307E-3	36.4685E-15	-4.43307E-3	63.9132E-3	59.9222E-12	-641.875E-3	13.8565E-3
-4.44095E-3	-611.453E-18	-4.44095E-3	65.7991E-3	60.0854E-12	-632.733E-3	8.74375E-3
-4.44882E-3	-1.63382E-15	-4.44882E-3	26.3106E-3	59.9959E-12	-672.073E-3	11.0366E-3
-4.45669E-3	8.39151E-15	-4.45669E-3	40.0137E-3	60.0717E-12	-652.501E-3	8.70198E-3
-4.46457E-3	-7.12715E-15	-4.46457E-3	65.1011E-3	59.9237E-12	-623.829E-3	12.8629E-3
-4.47244E-3	-7.40182E-15	-4.47244E-3	-35.9246E-3	60.0362E-12	-724.055E-3	9.14517E-3
-4.48031E-3	-3.08345E-15	-4.48031E-3	-106.586E-3	59.9503E-12	-806.213E-3	11.9836E-3
-4.48819E-3	-13.2614E-15	-4.48819E-3	-74.3873E-3	59.8361E-12	-787.220E-3	15.3657E-3
-4.49606E-3	-22.0049E-15	-4.49606E-3	46.6856E-3	60.0109E-12	-659.012E-3	10.4397E-3
-4.50394E-3	-23.8055E-15	-4.50394E-3	67.9301E-3	60.1044E-12	-624.972E-3	7.83144E-3
-4.51181E-3	-23.7597E-15	-4.51181E-3	-4.89884E-3	60.1142E-12	-720.147E-3	7.58797E-3
-4.51969E-3	-7.96641E-15	-4.51969E-3	-3.73199E-3	60.1432E-12	-718.671E-3	6.53023E-3
-4.52756E-3	-8.94301E-15	-4.52756E-3	5.87846E-3	60.0715E-12	-701.018E-3	8.26336E-3
-4.53543E-3	59.9540E-18	-4.53543E-3	-43.1165E-3	59.9990E-12	-749.604E-3	10.3306E-3
-4.54331E-3	-2.24419E-15	-4.54331E-3	-53.8015E-3	60.0456E-12	-770.952E-3	9.25716E-3
-4.55118E-3	-13.9023E-15	-4.55118E-3	44.9714E-3	60.0790E-12	-664.816E-3	7.81736E-3
-4.55905E-3	-13.7497E-15	-4.55905E-3	-5.25689E-3	59.9749E-12	-710.685E-3	10.2692E-3
-4.56693E-3	-2.10686E-15	-4.56693E-3	-9.24945E-3	59.8638E-12	-720.011E-3	13.3696E-3
-4.57480E-3	-13.5818E-15	-4.57480E-3	-35.3585E-3	59.8720E-12	-744.529E-3	14.2606E-3
-4.58268E-3	-45.7178E-15	-4.58268E-3	61.2473E-3	60.0384E-12	-638.038E-3	9.14086E-3
-4.59055E-3	-14.2685E-15	-4.59055E-3	26.5559E-3	60.0460E-12	-664.911E-3	8.51476E-3
-4.59843E-3	-33.6325E-15	-4.59843E-3	-79.4680E-3	60.0162E-12	-786.542E-3	9.62003E-3
-4.60630E-3	-29.9703E-15	-4.60630E-3	-38.8682E-3	59.8753E-12	-743.083E-3	13.3401E-3
-4.61417E-3	-17.4119E-15	-4.61417E-3	-11.6687E-3	59.7849E-12	-718.263E-3	16.2347E-3
-4.62205E-3	-43.9630E-15	-4.62205E-3	28.5140E-3	60.0952E-12	-670.466E-3	7.73394E-3
-4.62992E-3	-36.6538E-15	-4.62992E-3	-355.054E-6	60.0455E-12	-692.982E-3	9.40551E-3
-4.63780E-3	-22.1117E-15	-4.63780E-3	-48.2425E-3	60.0803E-12	-737.378E-3	7.77878E-3
-4.64567E-3	-67.8285E-15	-4.64567E-3	-107.518E-3	60.1164E-12	-800.607E-3	6.45037E-3
-4.65354E-3	-45.6720E-15	-4.65354E-3	-37.7102E-3	59.7925E-12	-731.624E-3	16.5617E-3
-4.66142E-3	-40.9722E-15	-4.66142E-3	130.050E-3	60.0299E-12	-544.658E-3	10.8665E-3
-4.66929E-3	-42.9406E-15	-4.66929E-3	-202.302E-3	60.1721E-12	-890.810E-3	5.74236E-3
-4.67717E-3	-41.2163E-15	-4.67717E-3	-109.680E-3	59.9263E-12	-796.525E-3	12.2470E-3
-4.68504E-3	-50.4940E-15	-4.68504E-3	-9.29251E-3	60.0186E-12	-697.117E-3	8.88464E-3
-4.69291E-3	-35.0363E-15	-4.69291E-3	-4.06044E-3	59.9151E-12	-686.647E-3	12.0646E-3
-4.70079E-3	-22.4474E-15	-4.70079E-3	3.55276E-3	60.0287E-12	-672.040E-3	9.23435E-3
-4.70866E-3	-39.6141E-15	-4.70866E-3	21.8839E-3	59.9750E-12	-652.922E-3	11.1564E-3
-4.71654E-3	-26.0791E-15	-4.71654E-3	20.6739E-3	59.9007E-12	-644.977E-3	13.2891E-3
-4.72441E-3	-46.4045E-15	-4.72441E-3	39.3168E-3	60.0643E-12	-617.233E-3	8.70867E-3
-4.73228E-3	-48.2661E-15	-4.73228E-3	86.3295E-3	59.9820E-12	-568.707E-3	11.2219E-3
-4.74016E-3	-26.0029E-15	-4.74016E-3	17.8534E-3	59.8834E-12	-648.380E-3	14.4391E-3
-4.74803E-3	-37.1421E-15	-4.74803E-3	42.3652E-3	59.9871E-12	-626.563E-3	11.3352E-3
-4.75591E-3	-40.9111E-15	-4.75591E-3	5.11144E-3	60.1104E-12	-666.254E-3	7.86381E-3
-4.76378E-3	-41.3231E-15	-4.76378E-3	-38.9844E-3	60.0301E-12	-715.632E-3	10.2918E-3
-4.77165E-3	-63.0828E-15	-4.77165E-3	10.6843E-3	60.2282E-12	-660.950E-3	4.20622E-3
-4.77953E-3	-49.2580E-15	-4.77953E-3	-158.415E-3	60.0104E-12	-838.213E-3	9.88089E-3
-4.78740E-3	-70.8193E-15	-4.78740E-3	-10.1831E-3	60.1798E-12	-698.831E-3	4.88497E-3
-4.79528E-3	-50.6465E-15	-4.79528E-3	-146.053E-3	60.0381E-12	-836.238E-3	8.12076E-3
-4.80315E-3	-55.3006E-15	-4.80315E-3	-14.8292E-3	60.1170E-12	-709.859E-3	5.60843E-3
-4.81102E-3	-71.9332E-15	-4.81102E-3	-107.496E-3	59.7981E-12	-795.433E-3	14.9690E-3
-4.81890E-3	-70.6209E-15	-4.81890E-3	-51.1922E-3	60.0726E-12	-738.883E-3	7.80771E-3
-4.82677E-3	-78.9677E-15	-4.82677E-3	41.8000E-3	60.0431E-12	-639.408E-3	8.43332E-3
-4.83465E-3	-70.8345E-15	-4.83465E-3	-14.8980E-3	60.0149E-12	-700.327E-3	9.58331E-3
-4.84252E-3	-51.8368E-15	-4.84252E-3	71.7321E-3	59.8372E-12	-600.922E-3	15.5859E-3
-4.85039E-3	-72.4215E-15	-4.85039E-3	-52.3989E-3	60.0904E-12	-727.029E-3	8.37413E-3
-4.85827E-3	-72.1621E-15	-4.85827E-3	-78.1310E-3	59.8346E-12	-759.169E-3	14.9005E-3
-4.86614E-3	-71.5212E-15	-4.86614E-3	84.2424E-3	60.2016E-12	-591.926E-3	4.29512E-3
-4.87402E-3	-70.5294E-15	-4.87402E-3	17.2332E-3	59.9996E-12	-660.923E-3	10.3077E-3
-4.88189E-3	-79.6086E-15	-4.88189E-3	-37.3708E-3	60.0350E-12	-730.158E-3	9.23066E-3
-4.88976E-3	-68.4083E-15	-4.88976E-3	49.3510E-3	59.9287E-12	-625.649E-3	11.7107E-3
-4.89764E-3	-89.5882E-15	-4.89764E-3	29.8263E-3	60.0068E-12	-650.270E-3	10.0127E-3
-4.90551E-3	-76.9993E-15	-4.90551E-3	-19.0533E-3	60.0060E-12	-709.382E-3	10.5327E-3
-4.91339E-3	-69.2476E-15	-4.91339E-3	-22.2622E-3	60.1899E-12	-719.161E-3	4.74981E-3
-4.92126E-3	-84.5221E-15	-4.92126E-3	-53.0471E-3	60.1429E-12	-751.188E-3	5.85451E-3
-4.92913E-3	-81.4702E-15	-4.92913E-3	-4.41076E-3	60.0251E-12	-705.147E-3	9.28747E-3
-4.93701E-3	-53.5000E-15	-4.93701E-3	30.4910E-3	59.8431E-12	-666.959E-3	14.9291E-3
-4.94488E-3	-68.3320E-15	-4.94488E-3	-5.77118E-3	60.0646E-12	-704.611E-3	8.93137E-3
-4.95276E-3	-74.6494E-15	-4.95276E-3	35.6000E-3	59.9923E-12	-661.811E-3	10.4850E-3
-4.96063E-3	-96.1344E-15	-4.96063E-3	-89.6290E-3	60.0270E-12	-787.000E-3	9.76780E-3
-4.96850E-3	-94.4101E-15	-4.96850E-3	-112.127E-3	59.9572E-12	-821.820E-3	11.6050E-3
-4.97638E-3	-113.881E-15	-4.97638E-3	-26.6959E-3	60.1379E-12	-731.560E-3	5.92877E-3
-4.98425E-3	-93.3114E-15	-4.98425E-3	30.0916E-3	59.9102E-12	-664.253E-3	12.1672E-3
-4.99213E-3	-85.6513E-15	-4.99213E-3	53.8462E-3	60.0535E-12	-635.620E-3	8.36470E-3
-5.00000E-3	-76.2974E-15	-5.00000E-3	57.8629E-3	59.7677E-12	-616.743E-3	16.7740E-3
